<?xml version="1.0"?>
<opencv_storage>
<stage17>
  <maxWeakCount>4</maxWeakCount>
  <stageThreshold>-6.1857408285140991e-01</stageThreshold>
  <weakClassifiers>
    <_>
      <internalNodes>
        0 -1 7761 537432066 32771 -2147483640 270532608 134217768
        268435460 134217738 -2130575125</internalNodes>
      <leafValues>
        -7.4509805440902710e-01 9.3939393758773804e-01</leafValues></_>
    <_>
      <internalNodes>
        0 -1 316412 82321 -1862139888 1 285212672 16801808 1207959576
        -2113929176 538509320</internalNodes>
      <leafValues>
        -1. 2.8267714381217957e-01</leafValues></_>
    <_>
      <internalNodes>
        0 -1 835 1073774597 2 134283264 276856832 1073741835 524298
        134744065 -1450829814</internalNodes>
      <leafValues>
        -4.1028115153312683e-01 9.7588181495666504e-01</leafValues></_>
    <_>
      <internalNodes>
        0 -1 22294 134807687 0 67108865 67108864 8483 -2147483647
        -1073676287 8455248</internalNodes>
      <leafValues>
        -1. 2.5412794947624207e-01</leafValues></_></weakClassifiers></stage17>
</opencv_storage>
