<?xml version="1.0"?>
<opencv_storage>
<cascade>
  <stageType>BOOST</stageType>
  <featureType>LBP</featureType>
  <height>64</height>
  <width>64</width>
  <stageParams>
    <boostType>GAB</boostType>
    <minHitRate>9.4999998807907104e-01</minHitRate>
    <maxFalseAlarm>5.0000000000000000e-01</maxFalseAlarm>
    <weightTrimRate>9.4999999999999996e-01</weightTrimRate>
    <maxDepth>1</maxDepth>
    <maxWeakCount>100</maxWeakCount></stageParams>
  <featureParams>
    <maxCatCount>256</maxCatCount>
    <featSize>1</featSize></featureParams>
  <stageNum>10</stageNum>
  <stages>
    <!-- stage 0 -->
    <_>
      <maxWeakCount>1</maxWeakCount>
      <stageThreshold>8.4615385532379150e-01</stageThreshold>
      <weakClassifiers>
        <_>
          <internalNodes>
            0 -1 7 -788445807 -1879048192 1073741856 -1996423168
            -2147417407 33685512 2097186 1880088587</internalNodes>
          <leafValues>
            -1. 8.4615385532379150e-01</leafValues></_></weakClassifiers></_>
    <!-- stage 1 -->
    <_>
      <maxWeakCount>1</maxWeakCount>
      <stageThreshold>9.1666668653488159e-01</stageThreshold>
      <weakClassifiers>
        <_>
          <internalNodes>
            0 -1 8 1342894283 16842755 6 285278210 -2147467126
            -1979711472 939589643 1443594259</internalNodes>
          <leafValues>
            -9.7777777910232544e-01 9.1666668653488159e-01</leafValues></_></weakClassifiers></_>
    <!-- stage 2 -->
    <_>
      <maxWeakCount>1</maxWeakCount>
      <stageThreshold>7.7777779102325439e-01</stageThreshold>
      <weakClassifiers>
        <_>
          <internalNodes>
            0 -1 5 1107542467 17043459 4161 17899778 -2013261682
            -2130558976 229386 602646534</internalNodes>
          <leafValues>
            -1. 7.7777779102325439e-01</leafValues></_></weakClassifiers></_>
    <!-- stage 3 -->
    <_>
      <maxWeakCount>1</maxWeakCount>
      <stageThreshold>7.7777779102325439e-01</stageThreshold>
      <weakClassifiers>
        <_>
          <internalNodes>
            0 -1 4 -804662897 -1073676286 316 -142540800 536905857
            -1979711487 -2147442677 1225101451</internalNodes>
          <leafValues>
            -1. 7.7777779102325439e-01</leafValues></_></weakClassifiers></_>
    <!-- stage 4 -->
    <_>
      <maxWeakCount>1</maxWeakCount>
      <stageThreshold>7.7777779102325439e-01</stageThreshold>
      <weakClassifiers>
        <_>
          <internalNodes>
            0 -1 10 1343721923 1078001768 16859392 -985595840 16513
            67338242 -2147483582 1838071950</internalNodes>
          <leafValues>
            -1. 7.7777779102325439e-01</leafValues></_></weakClassifiers></_>
    <!-- stage 5 -->
    <_>
      <maxWeakCount>1</maxWeakCount>
      <stageThreshold>7.7777779102325439e-01</stageThreshold>
      <weakClassifiers>
        <_>
          <internalNodes>
            0 -1 3 404066801 1363410945 4325392 420511744 268443781
            -394264574 -2147155964 1854050434</internalNodes>
          <leafValues>
            -1. 7.7777779102325439e-01</leafValues></_></weakClassifiers></_>
    <!-- stage 6 -->
    <_>
      <maxWeakCount>1</maxWeakCount>
      <stageThreshold>7.1428573131561279e-01</stageThreshold>
      <weakClassifiers>
        <_>
          <internalNodes>
            0 -1 0 1455591635 268567570 1098907661 268501154 -2011037482
            -1610612734 -2013263669 177062154</internalNodes>
          <leafValues>
            -1. 7.1428573131561279e-01</leafValues></_></weakClassifiers></_>
    <!-- stage 7 -->
    <_>
      <maxWeakCount>2</maxWeakCount>
      <stageThreshold>-1.2079054862260818e-01</stageThreshold>
      <weakClassifiers>
        <_>
          <internalNodes>
            0 -1 2 1476427843 369166337 1073741824 -1853882368 655371
            293601296 -2147450487 -1190952822</internalNodes>
          <leafValues>
            -9.3548387289047241e-01 1.</leafValues></_>
        <_>
          <internalNodes>
            0 -1 6 1074894293 823197699 1048593 -939458303 4229325
            1114112 -922738429 2063778435</internalNodes>
          <leafValues>
            -1. 8.1469333171844482e-01</leafValues></_></weakClassifiers></_>
    <!-- stage 8 -->
    <_>
      <maxWeakCount>1</maxWeakCount>
      <stageThreshold>8.4615385532379150e-01</stageThreshold>
      <weakClassifiers>
        <_>
          <internalNodes>
            0 -1 9 1090777115 -1073704829 -2147483648 1346371670
            -2138636287 2 536873282 1451278855</internalNodes>
          <leafValues>
            -1. 8.4615385532379150e-01</leafValues></_></weakClassifiers></_>
    <!-- stage 9 -->
    <_>
      <maxWeakCount>1</maxWeakCount>
      <stageThreshold>9.1666668653488159e-01</stageThreshold>
      <weakClassifiers>
        <_>
          <internalNodes>
            0 -1 1 67174405 5 16387 100698113 134217858 68 32904
            -1995767800</internalNodes>
          <leafValues>
            -9.7777777910232544e-01 9.1666668653488159e-01</leafValues></_></weakClassifiers></_></stages>
  <features>
    <_>
      <rect>
        0 25 2 2</rect></_>
    <_>
      <rect>
        0 26 11 12</rect></_>
    <_>
      <rect>
        1 15 19 16</rect></_>
    <_>
      <rect>
        1 23 2 2</rect></_>
    <_>
      <rect>
        1 50 3 3</rect></_>
    <_>
      <rect>
        4 12 3 4</rect></_>
    <_>
      <rect>
        10 34 5 6</rect></_>
    <_>
      <rect>
        12 9 2 4</rect></_>
    <_>
      <rect>
        37 40 6 5</rect></_>
    <_>
      <rect>
        49 44 1 5</rect></_>
    <_>
      <rect>
        50 37 3 5</rect></_></features></cascade>
</opencv_storage>
