<?xml version="1.0"?>
<opencv_storage>
<cascade>
  <stageType>BOOST</stageType>
  <featureType>LBP</featureType>
  <height>64</height>
  <width>64</width>
  <stageParams>
    <boostType>GAB</boostType>
    <minHitRate>9.4999998807907104e-01</minHitRate>
    <maxFalseAlarm>5.0000000000000000e-01</maxFalseAlarm>
    <weightTrimRate>9.4999999999999996e-01</weightTrimRate>
    <maxDepth>1</maxDepth>
    <maxWeakCount>100</maxWeakCount></stageParams>
  <featureParams>
    <maxCatCount>256</maxCatCount>
    <featSize>1</featSize></featureParams>
  <stageNum>10</stageNum>
  <stages>
    <!-- stage 0 -->
    <_>
      <maxWeakCount>1</maxWeakCount>
      <stageThreshold>1.</stageThreshold>
      <weakClassifiers>
        <_>
          <internalNodes>
            0 -1 0 1359074475 8486912 1073758208 593921 19585 0
            1073741963 688112139</internalNodes>
          <leafValues>
            -1. 1.</leafValues></_></weakClassifiers></_>
    <!-- stage 1 -->
    <_>
      <maxWeakCount>1</maxWeakCount>
      <stageThreshold>1.</stageThreshold>
      <weakClassifiers>
        <_>
          <internalNodes>
            0 -1 4 -1069363001 -1996423167 144 16883712 16394
            -1702887422 8347 1745064130</internalNodes>
          <leafValues>
            -1. 1.</leafValues></_></weakClassifiers></_>
    <!-- stage 2 -->
    <_>
      <maxWeakCount>1</maxWeakCount>
      <stageThreshold>9.5652174949645996e-01</stageThreshold>
      <weakClassifiers>
        <_>
          <internalNodes>
            0 -1 5 -1047277429 1 65537 268929137 32907 65538 1082130639
            1762385930</internalNodes>
          <leafValues>
            -1. 9.5652174949645996e-01</leafValues></_></weakClassifiers></_>
    <!-- stage 3 -->
    <_>
      <maxWeakCount>1</maxWeakCount>
      <stageThreshold>9.5652174949645996e-01</stageThreshold>
      <weakClassifiers>
        <_>
          <internalNodes>
            0 -1 6 1157657625 -1862270960 16842769 -2121023488 4296889
            -1874821120 536871083 143343627</internalNodes>
          <leafValues>
            -1. 9.5652174949645996e-01</leafValues></_></weakClassifiers></_>
    <!-- stage 4 -->
    <_>
      <maxWeakCount>1</maxWeakCount>
      <stageThreshold>9.5652174949645996e-01</stageThreshold>
      <weakClassifiers>
        <_>
          <internalNodes>
            0 -1 1 -784223983 -1786768367 16842755 -1056899071 49304
            2048 537430016 1763213454</internalNodes>
          <leafValues>
            -1. 9.5652174949645996e-01</leafValues></_></weakClassifiers></_>
    <!-- stage 5 -->
    <_>
      <maxWeakCount>1</maxWeakCount>
      <stageThreshold>9.5652174949645996e-01</stageThreshold>
      <weakClassifiers>
        <_>
          <internalNodes>
            0 -1 8 -1006516077 285229249 -2146434811 293699865
            -2147446646 -1065353216 134381576 83918857</internalNodes>
          <leafValues>
            -1. 9.5652174949645996e-01</leafValues></_></weakClassifiers></_>
    <!-- stage 6 -->
    <_>
      <maxWeakCount>1</maxWeakCount>
      <stageThreshold>9.1489362716674805e-01</stageThreshold>
      <weakClassifiers>
        <_>
          <internalNodes>
            0 -1 3 1879306638 17367043 8449 -1878982656 303104 65536
            -2126307326 1976287919</internalNodes>
          <leafValues>
            -1. 9.1489362716674805e-01</leafValues></_></weakClassifiers></_>
    <!-- stage 7 -->
    <_>
      <maxWeakCount>1</maxWeakCount>
      <stageThreshold>9.1489362716674805e-01</stageThreshold>
      <weakClassifiers>
        <_>
          <internalNodes>
            0 -1 10 1157829107 1392623617 1 -2147450879 33702272
            -2147450880 -2112860158 1269924003</internalNodes>
          <leafValues>
            -1. 9.1489362716674805e-01</leafValues></_></weakClassifiers></_>
    <!-- stage 8 -->
    <_>
      <maxWeakCount>1</maxWeakCount>
      <stageThreshold>6.9230771064758301e-01</stageThreshold>
      <weakClassifiers>
        <_>
          <internalNodes>
            0 -1 7 1354830235 1359020288 1098 -1862201343 243
            -1576009728 32810 143130841</internalNodes>
          <leafValues>
            -9.7590363025665283e-01 6.9230771064758301e-01</leafValues></_></weakClassifiers></_>
    <!-- stage 9 -->
    <_>
      <maxWeakCount>2</maxWeakCount>
      <stageThreshold>-1.9183966517448425e-01</stageThreshold>
      <weakClassifiers>
        <_>
          <internalNodes>
            0 -1 2 -655361 -1 -32769 -1073741825 -2629649 2013261823
            2147478527 -135790793</internalNodes>
          <leafValues>
            -7.1153843402862549e-01 9.3548387289047241e-01</leafValues></_>
        <_>
          <internalNodes>
            0 -1 9 -997736049 1073807361 1073758272 -1879015424
            -1073741824 -1056931839 -2147254269 1646510080</internalNodes>
          <leafValues>
            -9.7648626565933228e-01 5.1969879865646362e-01</leafValues></_></weakClassifiers></_></stages>
  <features>
    <_>
      <rect>
        1 22 5 10</rect></_>
    <_>
      <rect>
        3 1 6 3</rect></_>
    <_>
      <rect>
        7 1 14 19</rect></_>
    <_>
      <rect>
        8 13 1 3</rect></_>
    <_>
      <rect>
        11 9 7 5</rect></_>
    <_>
      <rect>
        12 35 6 7</rect></_>
    <_>
      <rect>
        14 20 3 1</rect></_>
    <_>
      <rect>
        15 2 13 2</rect></_>
    <_>
      <rect>
        16 29 12 9</rect></_>
    <_>
      <rect>
        16 31 5 11</rect></_>
    <_>
      <rect>
        41 11 5 14</rect></_></features></cascade>
</opencv_storage>
